{"gradients/decode.2.weight":{"values":[1,2,0,2,2,9,14,23,23,42,61,96,125,190,238,337,533,786,1124,1620,2362,3636,5447,8128,12268,18746,28647,42056,61593,89277,83935,53808,35591,24071,16360,11156,7799,5278,3675,2648,1737,1308,955,659,468,356,252,165,113,80,55,41,27,18,23,11,6,7,4,3,1,0,0,2],"bins":[-0.0003640768409240991,-0.0003519357123877853,-0.00033979458385147154,-0.0003276534262113273,-0.00031551229767501354,-0.00030337116913869977,-0.000291230040602386,-0.0002790889120660722,-0.00026694778352975845,-0.0002548066258896142,-0.00024266549735330045,-0.00023052436881698668,-0.0002183832402806729,-0.0002062420971924439,-0.00019410096865613014,-0.00018195982556790113,-0.00016981869703158736,-0.0001576775684952736,-0.0001455364254070446,-0.00013339529687073082,-0.00012125416105845943,-0.00010911302524618804,-9.697189670987427e-05,-8.483076089760289e-05,-7.26896250853315e-05,-6.054848927306011e-05,-4.8407357098767534e-05,-3.6266224924474955e-05,-2.4125089112203568e-05,-1.1983955118921585e-05,1.5717887436039746e-07,1.229831286764238e-05,2.4439446860924363e-05,3.658058267319575e-05,4.872171484748833e-05,6.086284702178091e-05,7.30039828340523e-05,8.514511864632368e-05,9.728624718263745e-05,0.00010942738299490884,0.00012156851880718023,0.000133709647343494,0.000145850790431723,0.00015799191896803677,0.00017013304750435054,0.00018227419059257954,0.00019441531912889332,0.00020655646221712232,0.0002186975907534361,0.00023083871928974986,0.00024297986237797886,0.00025512100546620786,0.00026726213400252163,0.0002794032625388354,0.0002915443910751492,0.00030368551961146295,0.0003158266772516072,0.00032796780578792095,0.0003401089343242347,0.0003522500628605485,0.00036439119139686227,0.00037653231993317604,0.00038867347757332027,0.00040081460610963404,0.0004129557346459478],"_type":"histogram"},"gradients/encode.0.weight":{"bins":[-4.58321810583584e-05,-4.4390500988811255e-05,-4.2948824557242915e-05,-4.150714448769577e-05,-4.006546805612743e-05,-3.862378798658028e-05,-3.718211155501194e-05,-3.5740431485464796e-05,-3.429875505389646e-05,-3.285707498434931e-05,-3.1415394914802164e-05,-2.9973718483233824e-05,-2.8532038413686678e-05,-2.7090360163128935e-05,-2.5648681912571192e-05,-2.420700366201345e-05,-2.2765325411455706e-05,-2.1323647160897963e-05,-1.988196891034022e-05,-1.8440290659782477e-05,-1.6998612409224734e-05,-1.5556932339677587e-05,-1.4115254089119844e-05,-1.2673575838562101e-05,-1.1231897588004358e-05,-9.790219337446615e-06,-8.348541086888872e-06,-6.906861926836427e-06,-5.465183676278684e-06,-4.023505425720941e-06,-2.5818267204158474e-06,-1.140148242484429e-06,3.0153387342579663e-07,1.743212351357215e-06,3.1848908292886335e-06,4.6265695345937274e-06,6.0682477851514705e-06,7.5099260357092135e-06,8.951605195761658e-06,1.0393283446319401e-05,1.1834961696877144e-05,1.3276639947434887e-05,1.471831819799263e-05,1.6159996448550373e-05,1.760167651809752e-05,1.9043354768655263e-05,2.0485033019213006e-05,2.192671126977075e-05,2.3368389520328492e-05,2.4810067770886235e-05,2.6251746021443978e-05,2.769342427200172e-05,2.9135102522559464e-05,3.057678259210661e-05,3.201845902367495e-05,3.3460139093222097e-05,3.4901815524790436e-05,3.634349559433758e-05,3.778517566388473e-05,3.922685209545307e-05,4.0668532165000215e-05,4.2110208596568555e-05,4.35518886661157e-05,4.499356509768404e-05,4.643524516723119e-05],"_type":"histogram","values":[2,0,1,0,1,2,0,3,3,4,8,6,13,13,20,26,35,42,54,84,113,139,215,305,495,814,1488,2846,6492,18050,62416,238865,139629,35204,11155,4375,2068,1068,618,389,276,194,131,96,63,47,42,20,22,15,10,7,6,2,1,3,1,2,0,0,0,0,0,1]},"train_loss_identity_epoch":0.0005367196863517165,"_timestamp":1.730858228204647e+09,"baseline_ratio":0.7488277554512024,"_runtime":41.463364285,"_wandb":{"runtime":41},"gradients/decode.0.weight":{"_type":"histogram","values":[1,1,1,3,0,2,0,2,4,5,9,12,21,29,45,83,87,113,177,262,327,455,664,891,1226,1768,2606,3719,5418,7701,10934,14819,19637,23870,25837,21185,16532,12211,8840,6194,4291,2962,2058,1435,1021,739,490,370,270,196,147,91,60,59,39,20,23,10,12,3,6,2,4,1],"bins":[-0.00010996728087775409,-0.00010675069643184543,-0.00010353411926189438,-0.00010031753481598571,-9.710095037007704e-05,-9.388437320012599e-05,-9.066778875421733e-05,-8.745120430830866e-05,-8.42346198624e-05,-8.101804269244894e-05,-7.780145824654028e-05,-7.458487380063161e-05,-7.136829663068056e-05,-6.81517121847719e-05,-6.493512773886323e-05,-6.171855056891218e-05,-5.850196612300351e-05,-5.5285385315073654e-05,-5.206880086916499e-05,-4.885222006123513e-05,-4.5635635615326464e-05,-4.2419054807396606e-05,-3.920247399946675e-05,-3.598588955355808e-05,-3.276930874562822e-05,-2.955272611870896e-05,-2.63361434917897e-05,-2.311956268385984e-05,-1.9902980056940578e-05,-1.6686397430021316e-05,-1.3469815712596755e-05,-1.0253233995172195e-05,-7.036651368252933e-06,-3.820069196081022e-06,-6.034870239091106e-07,2.6130951482628006e-06,5.829677320434712e-06,9.046259947353974e-06,1.2262841664778534e-05,1.5479423382203095e-05,1.8696006009122357e-05,2.191258863604162e-05,2.512917126296088e-05,2.834575207089074e-05,3.15623328788206e-05,3.4778917324729264e-05,3.799549813265912e-05,4.121208257856779e-05,4.4428663386497647e-05,4.7645244194427505e-05,5.086182864033617e-05,5.407840944826603e-05,5.7294993894174695e-05,6.0511574702104554e-05,6.372815551003441e-05,6.694473995594308e-05,7.016131712589413e-05,7.33779015718028e-05,7.659448601771146e-05,7.981107046362013e-05,8.302764763357118e-05,8.624423207947984e-05,8.946081652538851e-05,9.267739369533956e-05,9.589397814124823e-05]},"baseline_identity_loss":0.4233878254890442,"gradients/encode.2.bias":{"_type":"histogram","values":[1,0,0,0,0,0,0,0,0,0,0,0,1,0,3,1,0,0,3,1,1,0,1,4,4,0,4,4,1,4,3,2,5,13,4,6,3,8,3,6,3,3,1,0,1,3,0,0,1,0,0,0,0,1,0,0,0,0,0,0,0,0,0,1],"bins":[-0.00011498587264213711,-0.00011140641436213627,-0.00010782694880617782,-0.00010424749052617699,-0.00010066803224617615,-9.70885666902177e-05,-9.350910841021687e-05,-8.992965013021603e-05,-8.635018457425758e-05,-8.277072629425675e-05,-7.919126801425591e-05,-7.561180245829746e-05,-7.203234417829663e-05,-6.845288589829579e-05,-6.487342034233734e-05,-6.12939620623365e-05,-5.771450014435686e-05,-5.413503822637722e-05,-5.055557994637638e-05,-4.697611802839674e-05,-4.33966561104171e-05,-3.981719783041626e-05,-3.623773591243662e-05,-3.265827399445698e-05,-2.9078813895466737e-05,-2.5499353796476498e-05,-2.1919891878496855e-05,-1.8340431779506616e-05,-1.4760970771021675e-05,-1.1181509762536734e-05,-7.602049208799144e-06,-4.022588655061554e-06,-4.431276465766132e-07,3.1363331345346523e-06,6.715793915645918e-06,1.0295254469383508e-05,1.3874715477868449e-05,1.745417648635339e-05,2.103363658534363e-05,2.4613098503323272e-05,2.819255860231351e-05,3.177201870130375e-05,3.535148061928339e-05,3.8930942537263036e-05,4.251040081726387e-05,4.6089862735243514e-05,4.966932465322316e-05,5.324878293322399e-05,5.6828244851203635e-05,6.040770676918328e-05,6.398716504918411e-05,6.756663060514256e-05,7.11460888851434e-05,7.472554716514423e-05,7.830501272110268e-05,8.188447100110352e-05,8.546392928110436e-05,8.90433948370628e-05,9.262285311706364e-05,9.620231139706448e-05,9.978177695302293e-05,0.00010336123523302376,0.0001069406935130246,0.00011052015906898305,0.00011409961734898388]},"test_loss_identity_epoch":0.10634328424930573,"gradients/encode.0.bias":{"bins":[-1.78367699845694e-05,-1.7312419004156254e-05,-1.6788068023743108e-05,-1.626371704332996e-05,-1.573936788190622e-05,-1.5215016901493073e-05,-1.4690665921079926e-05,-1.416631494066678e-05,-1.3641963960253634e-05,-1.3117613889335189e-05,-1.2593262908922043e-05,-1.2068911928508896e-05,-1.1544561857590452e-05,-1.1020210877177306e-05,-1.049585989676416e-05,-9.971509825845715e-06,-9.447158845432568e-06,-8.922807865019422e-06,-8.398457794100977e-06,-7.874106813687831e-06,-7.349755833274685e-06,-6.825405307608889e-06,-6.301054781943094e-06,-5.776703801529948e-06,-5.252353275864152e-06,-4.728002750198357e-06,-4.2036517697852105e-06,-3.679301244119415e-06,-3.154950491079944e-06,-2.6305997380404733e-06,-2.106249212374678e-06,-1.581898459335207e-06,-1.0575477062957361e-06,-5.331970100996841e-07,-8.846313903632108e-09,5.155043822924199e-07,1.039855078488472e-06,1.5642058315279428e-06,2.0885563571937382e-06,2.612907110233209e-06,3.13725786327268e-06,3.661608616312151e-06,4.185959369351622e-06,4.710309895017417e-06,5.234660420683213e-06,5.759011401096359e-06,6.283361926762154e-06,6.807712907175301e-06,7.332063432841096e-06,7.856414413254242e-06,8.380764484172687e-06,8.905115464585833e-06,9.42946644499898e-06,9.953816515917424e-06,1.047816749633057e-05,1.1002518476743717e-05,1.1526868547662161e-05,1.2051219528075308e-05,1.2575570508488454e-05,1.30999214889016e-05,1.3624271559820045e-05,1.4148622540233191e-05,1.4672973520646337e-05,1.5197323591564782e-05,1.5721674571977928e-05],"_type":"histogram","values":[1,1,1,0,0,0,0,0,0,1,2,4,2,2,4,7,5,11,11,17,24,21,33,36,43,49,70,70,77,95,91,104,120,95,118,103,107,103,87,82,66,49,53,41,39,25,13,20,28,16,14,11,6,9,1,2,1,4,3,0,0,0,0,2]},"_step":164,"gradients/decode.0.bias":{"values":[3,2,0,1,1,3,6,4,11,10,7,12,14,14,27,21,33,29,26,54,54,58,69,60,86,82,118,104,101,93,96,95,90,100,84,66,56,47,35,41,32,35,22,17,15,14,9,7,9,8,2,8,4,2,1,0,0,0,1,0,0,0,0,1],"bins":[-3.611239662859589e-05,-3.486477362457663e-05,-3.361714698257856e-05,-3.23695239785593e-05,-3.112190097454004e-05,-2.9874276151531376e-05,-2.8626651328522712e-05,-2.737902832450345e-05,-2.6131403501494788e-05,-2.4883778678486124e-05,-2.3636155674466863e-05,-2.23885308514582e-05,-2.1140906028449535e-05,-1.9893283024430275e-05,-1.864565820142161e-05,-1.739803519740235e-05,-1.6150410374393687e-05,-1.4902786460879724e-05,-1.3655162547365762e-05,-1.2407537724357098e-05,-1.1159913810843136e-05,-9.912289897329174e-06,-8.66466507432051e-06,-7.417041160806548e-06,-6.169417247292586e-06,-4.9217933337786235e-06,-3.6741689655173104e-06,-2.426544824629673e-06,-1.1789206837420352e-06,6.870345714560244e-08,1.31632759803324e-06,2.5639517389208777e-06,3.8115722418297082e-06,5.05919615534367e-06,6.3068205236049835e-06,7.5544448918662965e-06,8.802068805380259e-06,1.0049692718894221e-05,1.1297317541902885e-05,1.2544941455416847e-05,1.379256536893081e-05,1.5040189282444771e-05,1.6287813195958734e-05,1.7535438018967398e-05,1.878306284197606e-05,2.0030685845995322e-05,2.1278310669003986e-05,2.2525933673023246e-05,2.377355849603191e-05,2.5021183319040574e-05,2.6268806323059835e-05,2.75164311460685e-05,2.876405415008776e-05,3.0011678973096423e-05,3.125930379610509e-05,3.250692680012435e-05,3.375454980414361e-05,3.5002176446141675e-05,3.6249799450160936e-05,3.7497422454180196e-05,3.8745049096178263e-05,3.9992672100197524e-05,4.1240295104216784e-05,4.248792174621485e-05,4.373554475023411e-05],"_type":"histogram"},"gradients/encode.2.weight":{"bins":[-8.351455471711233e-05,-8.083936700131744e-05,-7.816417200956494e-05,-7.548898429377005e-05,-7.281378930201754e-05,-7.013860158622265e-05,-6.746340659447014e-05,-6.478821887867525e-05,-6.211303116288036e-05,-5.9437836171127856e-05,-5.676264481735416e-05,-5.408745346358046e-05,-5.141226574778557e-05,-4.873707439401187e-05,-4.606188304023817e-05,-4.3386691686464474e-05,-4.0711500332690775e-05,-3.803630897891708e-05,-3.536111762514338e-05,-3.268592627136968e-05,-3.0010736736585386e-05,-2.7335545382811688e-05,-2.4660355848027393e-05,-2.1985164494253695e-05,-1.9309973140479997e-05,-1.66347817867063e-05,-1.3959591342427302e-05,-1.1284400898148306e-05,-8.609209544374608e-06,-5.93401864534826e-06,-3.258827746321913e-06,-5.836368472955655e-07,2.091561327688396e-06,4.766752226714743e-06,7.441943125741091e-06,1.0117133570020087e-05,1.2792324923793785e-05,1.5467516277567483e-05,1.8142705812351778e-05,2.0817897166125476e-05,2.3493088519899175e-05,2.6168279873672873e-05,2.884347122744657e-05,3.151866258122027e-05,3.419385029701516e-05,3.686904165078886e-05,3.954423300456256e-05,4.2219424358336255e-05,4.489461571210995e-05,4.756980706588365e-05,5.024499841965735e-05,5.292018977343105e-05,5.5595381127204746e-05,5.827056884299964e-05,6.0945760196773335e-05,6.362095155054703e-05,6.629613926634192e-05,6.897133425809443e-05,7.164652197388932e-05,7.432171696564183e-05,7.699690468143672e-05,7.967209967318922e-05,8.234728738898411e-05,8.502248238073662e-05,8.769767009653151e-05],"_type":"histogram","values":[2,1,1,0,1,3,10,9,25,37,45,52,91,109,164,199,305,408,595,697,993,1408,2015,2731,3679,5137,6914,8960,11801,16310,22518,27535,24717,18981,13497,9564,6515,4247,2881,1905,1337,938,697,520,345,268,196,166,121,98,60,65,36,31,18,16,9,6,4,2,2,2,0,1]},"gradients/decode.2.bias":{"_type":"histogram","values":[1,1,0,0,0,2,1,0,0,0,0,0,5,0,6,4,1,6,4,6,12,8,6,12,7,10,9,12,9,18,9,10,14,5,13,9,7,5,7,5,4,5,5,3,2,3,2,2,3,1,4,0,0,2,0,1,1,0,0,1,0,0,0,1],"bins":[-0.0001859774492913857,-0.00017982543795369565,-0.00017367341206409037,-0.00016752140072640032,-0.00016136938938871026,-0.0001552173780510202,-0.00014906536671333015,-0.00014291334082372487,-0.0001367613294860348,-0.00013060931814834476,-0.00012445729225873947,-0.00011830528092104942,-0.00011215326958335936,-0.0001060012582456693,-9.984923963202164e-05,-9.369722101837397e-05,-8.754520968068391e-05,-8.139319834299386e-05,-7.524117972934619e-05,-6.908916111569852e-05,-6.293714977800846e-05,-5.67851348023396e-05,-5.0633119826670736e-05,-4.4481104851001874e-05,-3.832908987533301e-05,-3.217707489966415e-05,-2.6025059923995286e-05,-1.9873044948326424e-05,-1.3721029972657561e-05,-7.569014996988699e-06,-1.4170000213198364e-06,4.735014954349026e-06,1.088701537810266e-05,1.7039030353771523e-05,2.3191045329440385e-05,2.9343060305109248e-05,3.549507528077811e-05,4.164709025644697e-05,4.7799105232115835e-05,5.39511202077847e-05,6.010313518345356e-05,6.625514652114362e-05,7.240716513479128e-05,7.855918374843895e-05,8.471119508612901e-05,9.086320642381907e-05,9.701522503746673e-05,0.0001031672436511144,0.00010931925498880446,0.00011547126632649451,0.00012162328494014218,0.00012777530355378985,0.0001339273148914799,0.00014007932622916996,0.00014623135211877525,0.0001523833634564653,0.00015853537479415536,0.00016468738613184541,0.00017083939746953547,0.00017699142335914075,0.0001831434346968308,0.00018929544603452086,0.00019544747192412615,0.0002015994832618162,0.00020775149459950626]}}